{
  "input_layer": {
    "weights": [
      [
        -0.008947326004476517,
        -0.00982465325437032,
        -0.003818892720301819,
        -0.0014014002876199336,
        0.006469603460926071,
        -0.00880624131998243,
        -0.005606342973996812,
        -0.0031096673809808406,
        -0.009677664094568033,
        0.005988899977711985
      ],
      [
        -0.004780885482926689,
        0.008220534174178265,
        0.008401818001717342,
        -0.008754811817736696,
        -0.0036292528147247524,
        0.0019110911194102197,
        -0.008077944199779563,
        0.009365425815293699,
        0.004231033499543383,
        -0.001684285266632484
      ],
      [
        -0.001303335068237283,
        -0.0016309939322515562,
        -0.008667728826363946,
        -0.003431904264721437,
        -0.006726711320560802,
        -0.002087204278457804,
        0.0006666922660477949,
        -0.006305470493298533,
        -0.003572453345225042,
        -0.001318344444580075
      ],
      [
        -0.004936271716816061,
        -0.005244373112407104,
        0.007772198784779976,
        0.004278785924180262,
        -0.0026610766126074163,
        0.0015818942320220339,
        0.002573621010116196,
        -0.00413754609510403,
        -0.004684238833621091,
        0.005389643228064565
      ],
      [
        0.003267995429771105,
        0.0029755465338175673,
        -0.006932944533348298,
        -0.0024923535785599136,
        -0.00027523725984935493,
        -0.0034510941485887047,
        0.009949980673583882,
        0.005881693565707067,
        0.004928587798891413,
        -0.0019088580203491749
      ],
      [
        0.0024853521263858824,
        -0.001034006111020282,
        -0.003974921264545066,
        -0.0065701318044476655,
        -0.006022294388616725,
        -0.003723705502468049,
        0.002632884307529157,
        -0.007851852352945523,
        -0.005232199486063009,
        -0.00890584577463431
      ],
      [
        0.006111931802322725,
        0.0018190548817423186,
        -0.00038576865885607374,
        -0.0019522495382191443,
        -0.009834710812687955,
        -0.0036489175568607604,
        -0.0033046533225219643,
        0.003591785342329179,
        -0.006200440445286053,
        0.006346065518032856
      ]
    ],
    "biases": [
      1,
      1,
      1,
      1,
      1,
      1,
      1,
      1,
      1,
      1
    ]
  },
  "hidden_layers": [
    {
      "weights": [
        [
          0.002577813045988411,
          -0.007740584122486212,
          -0.004448140323046286,
          -0.002714544470807649,
          0.009662940404955559,
          0.008300887313170855,
          -0.0018303148532855928,
          0.008307134996592686,
          0.0012622801547369257,
          -0.006345902797467771
        ],
        [
          -0.007923718965842574,
          -0.004031098489887836,
          -0.002239630672214987,
          0.00384288300852712,
          0.004762085995085803,
          -0.007877147026512836,
          -0.008165228754780445,
          -0.0064379110677293475,
          -0.0010611834820891883,
          -0.006190633520175677
        ],
        [
          7.769655778164589e-05,
          -0.00963197012743046,
          0.0026313705896175415,
          0.0025423278087231497,
          0.00037830878323511993,
          0.003671349178960283,
          0.0030183524019104513,
          0.008566847453874938,
          -0.00417317175526383,
          0.004499373879011628
        ],
        [
          0.005645563725556231,
          -0.004292424068312939,
          0.0018174243309670279,
          -0.008377973054140736,
          -0.002288651643710271,
          -0.00843834204497832,
          -0.008315544404930816,
          0.003715724108062866,
          0.0026766710785942147,
          0.008940673646398225
        ],
        [
          0.009283327562711335,
          0.0026914205320783917,
          0.00340647121024573,
          0.009688372184486623,
          -0.007095072477094435,
          -0.0030017784673059,
          -2.596857204451887e-05,
          0.000595614171856074,
          0.004145732756048775,
          0.003683363634395996
        ],
        [
          0.008155744952378306,
          -0.0030127536395699473,
          0.005429329756796915,
          -0.007394327951740969,
          -0.005876356266999208,
          -0.0071968091486452335,
          0.007175764760677437,
          -0.008493717472380124,
          -0.009469053635532932,
          -0.005247284073911456
        ],
        [
          -0.007064300198557603,
          0.00963369492393429,
          -0.005951524295365829,
          -0.0019398719035905784,
          0.00566322728068701,
          0.006766099359242843,
          0.002298402391410253,
          -0.004841779918751053,
          -0.00784712445979274,
          -0.003758112780410843
        ],
        [
          -0.002273461969202646,
          0.006235120057701811,
          0.0050936508675367784,
          0.009999642559718839,
          -0.004212908482259781,
          -0.0094096948061183,
          0.009023768404837049,
          0.0032412976934712307,
          -0.0026719845177921473,
          0.006312860121610782
        ],
        [
          -0.004866846826201723,
          -0.00030247867100734876,
          -0.000763564586418377,
          0.005019793881062818,
          -0.0017171797554341953,
          0.0030740288855953205,
          0.0011054003012149292,
          0.003118322940265237,
          -0.005909805019972376,
          -0.004435831814761731
        ],
        [
          0.006617756001010481,
          -0.009290627393293827,
          -7.180646779982904e-05,
          -0.009969737585504812,
          -0.00019271232171759467,
          -0.0036604614720572946,
          0.006535932881847393,
          -0.0012325263190438099,
          -0.0038803200518581042,
          -0.0017126711624503525
        ]
      ],
      "biases": [
        1,
        1,
        1,
        1,
        1,
        1,
        1,
        1,
        1,
        1
      ]
    }
  ],
  "output_layer": {
    "weights": [
      [
        -0.003726584552340593,
        -0.0057762264180689195
      ],
      [
        -0.007086607336670907,
        -0.008887071431450627
      ],
      [
        -0.008805304739792257,
        0.001452152373536051
      ],
      [
        0.007030840023748498,
        0.006145521203165182
      ],
      [
        -0.0042174649135615465,
        0.004056703394141608
      ],
      [
        0.00814590930339385,
        -0.005572713610285072
      ],
      [
        -0.0029749365699577044,
        -0.0012255148317075696
      ],
      [
        -0.006471539844801007,
        0.008336584338589205
      ],
      [
        0.0030388404110591564,
        0.009933642994098517
      ],
      [
        -0.004206420030451514,
        -0.009362881784119455
      ]
    ],
    "biases": [
      1,
      1
    ]
  },
  "id": 891522900,
  "score": 52
}